digraph Tree {
node [shape=box] ;
0 [label="X[0] <= 0.3202\ngini = 0.4939\nsamples = 1371\nvalue = [761, 610]"] ;
1 [label="X[1] <= 7.5653\ngini = 0.3062\nsamples = 657\nvalue = [124, 533]"] ;
0 -> 1 [labeldistance=2.5, labelangle=45, headlabel="True"] ;
2 [label="X[0] <= -0.4031\ngini = 0.1313\nsamples = 552\nvalue = [39, 513]"] ;
1 -> 2 ;
3 [label="X[2] <= 6.2186\ngini = 0.0696\nsamples = 471\nvalue = [17, 454]"] ;
2 -> 3 ;
4 [label="X[1] <= 7.2931\ngini = 0.0062\nsamples = 324\nvalue = [1, 323]"] ;
3 -> 4 ;
5 [label="gini = 0.0\nsamples = 320\nvalue = [0, 320]"] ;
4 -> 5 ;
6 [label="X[1] <= 7.3491\ngini = 0.375\nsamples = 4\nvalue = [1, 3]"] ;
4 -> 6 ;
7 [label="gini = 0.0\nsamples = 1\nvalue = [1, 0]"] ;
6 -> 7 ;
8 [label="gini = 0.0\nsamples = 3\nvalue = [0, 3]"] ;
6 -> 8 ;
9 [label="X[1] <= -4.6745\ngini = 0.194\nsamples = 147\nvalue = [16, 131]"] ;
3 -> 9 ;
10 [label="gini = 0.0\nsamples = 130\nvalue = [0, 130]"] ;
9 -> 10 ;
11 [label="X[2] <= 6.6145\ngini = 0.1107\nsamples = 17\nvalue = [16, 1]"] ;
9 -> 11 ;
12 [label="X[3] <= -0.7696\ngini = 0.5\nsamples = 2\nvalue = [1, 1]"] ;
11 -> 12 ;
13 [label="gini = 0.0\nsamples = 1\nvalue = [1, 0]"] ;
12 -> 13 ;
14 [label="gini = 0.0\nsamples = 1\nvalue = [0, 1]"] ;
12 -> 14 ;
15 [label="gini = 0.0\nsamples = 15\nvalue = [15, 0]"] ;
11 -> 15 ;
16 [label="X[1] <= 5.4535\ngini = 0.3957\nsamples = 81\nvalue = [22, 59]"] ;
2 -> 16 ;
17 [label="X[2] <= 2.6247\ngini = 0.2649\nsamples = 70\nvalue = [11, 59]"] ;
16 -> 17 ;
18 [label="gini = 0.0\nsamples = 58\nvalue = [0, 58]"] ;
17 -> 18 ;
19 [label="X[3] <= 1.2282\ngini = 0.1528\nsamples = 12\nvalue = [11, 1]"] ;
17 -> 19 ;
20 [label="gini = 0.0\nsamples = 11\nvalue = [11, 0]"] ;
19 -> 20 ;
21 [label="gini = 0.0\nsamples = 1\nvalue = [0, 1]"] ;
19 -> 21 ;
22 [label="gini = 0.0\nsamples = 11\nvalue = [11, 0]"] ;
16 -> 22 ;
23 [label="X[0] <= -4.726\ngini = 0.3084\nsamples = 105\nvalue = [85, 20]"] ;
1 -> 23 ;
24 [label="gini = 0.0\nsamples = 20\nvalue = [0, 20]"] ;
23 -> 24 ;
25 [label="gini = 0.0\nsamples = 85\nvalue = [85, 0]"] ;
23 -> 25 ;
26 [label="X[2] <= -4.3861\ngini = 0.1924\nsamples = 714\nvalue = [637, 77]"] ;
0 -> 26 [labeldistance=2.5, labelangle=-45, headlabel="False"] ;
27 [label="X[0] <= 3.304\ngini = 0.3628\nsamples = 42\nvalue = [10, 32]"] ;
26 -> 27 ;
28 [label="gini = 0.0\nsamples = 32\nvalue = [0, 32]"] ;
27 -> 28 ;
29 [label="gini = 0.0\nsamples = 10\nvalue = [10, 0]"] ;
27 -> 29 ;
30 [label="X[0] <= 1.5922\ngini = 0.125\nsamples = 672\nvalue = [627, 45]"] ;
26 -> 30 ;
31 [label="X[2] <= -2.2722\ngini = 0.3523\nsamples = 184\nvalue = [142, 42]"] ;
30 -> 31 ;
32 [label="X[1] <= 5.6667\ngini = 0.1975\nsamples = 27\nvalue = [3, 24]"] ;
31 -> 32 ;
33 [label="gini = 0.0\nsamples = 24\nvalue = [0, 24]"] ;
32 -> 33 ;
34 [label="gini = 0.0\nsamples = 3\nvalue = [3, 0]"] ;
32 -> 34 ;
35 [label="X[3] <= 0.0819\ngini = 0.203\nsamples = 157\nvalue = [139, 18]"] ;
31 -> 35 ;
36 [label="X[0] <= 0.42\ngini = 0.0165\nsamples = 120\nvalue = [119, 1]"] ;
35 -> 36 ;
37 [label="X[2] <= -1.3241\ngini = 0.1107\nsamples = 17\nvalue = [16, 1]"] ;
36 -> 37 ;
38 [label="gini = 0.0\nsamples = 1\nvalue = [0, 1]"] ;
37 -> 38 ;
39 [label="gini = 0.0\nsamples = 16\nvalue = [16, 0]"] ;
37 -> 39 ;
40 [label="gini = 0.0\nsamples = 103\nvalue = [103, 0]"] ;
36 -> 40 ;
41 [label="X[2] <= 1.853\ngini = 0.4967\nsamples = 37\nvalue = [20, 17]"] ;
35 -> 41 ;
42 [label="X[1] <= 3.5592\ngini = 0.1884\nsamples = 19\nvalue = [2, 17]"] ;
41 -> 42 ;
43 [label="gini = 0.0\nsamples = 17\nvalue = [0, 17]"] ;
42 -> 43 ;
44 [label="gini = 0.0\nsamples = 2\nvalue = [2, 0]"] ;
42 -> 44 ;
45 [label="gini = 0.0\nsamples = 18\nvalue = [18, 0]"] ;
41 -> 45 ;
46 [label="X[0] <= 2.0366\ngini = 0.0122\nsamples = 488\nvalue = [485, 3]"] ;
30 -> 46 ;
47 [label="X[2] <= -2.6484\ngini = 0.1014\nsamples = 56\nvalue = [53, 3]"] ;
46 -> 47 ;
48 [label="X[1] <= 6.4727\ngini = 0.375\nsamples = 4\nvalue = [1, 3]"] ;
47 -> 48 ;
49 [label="gini = 0.0\nsamples = 3\nvalue = [0, 3]"] ;
48 -> 49 ;
50 [label="gini = 0.0\nsamples = 1\nvalue = [1, 0]"] ;
48 -> 50 ;
51 [label="gini = 0.0\nsamples = 52\nvalue = [52, 0]"] ;
47 -> 51 ;
52 [label="gini = 0.0\nsamples = 432\nvalue = [432, 0]"] ;
46 -> 52 ;
}
